digraph Tree {
node [shape=box] ;
0 [label="TotalWorkingYears <= 1.5\ngini = 0.27\nsamples = 4382\nvalue = [3677, 705]"] ;
1 [label="Age <= 33.5\ngini = 0.5\nsamples = 273\nvalue = [140, 133]"] ;
0 -> 1 [labeldistance=2.5, labelangle=45, headlabel="True"] ;
7 [label="Age <= 26.5\ngini = 0.495\nsamples = 237\nvalue = [107, 130]"] ;
1 -> 7 ;
13 [label="gini = 0.463\nsamples = 140\nvalue = [51, 89]"] ;
7 -> 13 ;
14 [label="gini = 0.488\nsamples = 97\nvalue = [56, 41]"] ;
7 -> 14 ;
8 [label="gini = 0.153\nsamples = 36\nvalue = [33, 3]"] ;
1 -> 8 ;
2 [label="Age <= 33.5\ngini = 0.24\nsamples = 4109\nvalue = [3537, 572]"] ;
0 -> 2 [labeldistance=2.5, labelangle=-45, headlabel="False"] ;
3 [label="YearsAtCompany <= 3.5\ngini = 0.315\nsamples = 1473\nvalue = [1184, 289]"] ;
2 -> 3 ;
5 [label="YearsAtCompany <= 1.5\ngini = 0.425\nsamples = 450\nvalue = [312, 138]"] ;
3 -> 5 ;
11 [label="gini = 0.5\nsamples = 66\nvalue = [33, 33]"] ;
5 -> 11 ;
12 [label="gini = 0.397\nsamples = 384\nvalue = [279, 105]"] ;
5 -> 12 ;
6 [label="gini = 0.252\nsamples = 1023\nvalue = [872, 151]"] ;
3 -> 6 ;
4 [label="TotalWorkingYears <= 39.0\ngini = 0.192\nsamples = 2636\nvalue = [2353, 283]"] ;
2 -> 4 ;
9 [label="gini = 0.188\nsamples = 2630\nvalue = [2353, 277]"] ;
4 -> 9 ;
10 [label="gini = 0.0\nsamples = 6\nvalue = [0, 6]"] ;
4 -> 10 ;
}